digraph Tree {
node [shape=box] ;
0 [label="X[1] <= 709033.688\ngini = 0.676\nsamples = 1933\nvalue = [818, 280, 180, 655]"] ;
1 [label="X[1] <= 105555.094\ngini = 0.51\nsamples = 1211\nvalue = [794, 262, 139, 16]"] ;
0 -> 1 [labeldistance=2.5, labelangle=45, headlabel="True"] ;
2 [label="X[1] <= 79889.504\ngini = 0.063\nsamples = 712\nvalue = [689, 23, 0, 0]"] ;
1 -> 2 ;
3 [label="X[4] <= -1.634\ngini = 0.012\nsamples = 643\nvalue = [639, 4, 0, 0]"] ;
2 -> 3 ;
4 [label="gini = 0.0\nsamples = 1\nvalue = [0, 1, 0, 0]"] ;
3 -> 4 ;
5 [label="X[1] <= 70078.754\ngini = 0.009\nsamples = 642\nvalue = [639, 3, 0, 0]"] ;
3 -> 5 ;
6 [label="gini = 0.0\nsamples = 596\nvalue = [596, 0, 0, 0]"] ;
5 -> 6 ;
7 [label="X[1] <= 70317.785\ngini = 0.122\nsamples = 46\nvalue = [43, 3, 0, 0]"] ;
5 -> 7 ;
8 [label="gini = 0.0\nsamples = 1\nvalue = [0, 1, 0, 0]"] ;
7 -> 8 ;
9 [label="X[3] <= 0.964\ngini = 0.085\nsamples = 45\nvalue = [43, 2, 0, 0]"] ;
7 -> 9 ;
10 [label="gini = 0.0\nsamples = 1\nvalue = [0, 1, 0, 0]"] ;
9 -> 10 ;
11 [label="X[3] <= 6.04\ngini = 0.044\nsamples = 44\nvalue = [43, 1, 0, 0]"] ;
9 -> 11 ;
12 [label="gini = 0.0\nsamples = 40\nvalue = [40, 0, 0, 0]"] ;
11 -> 12 ;
13 [label="X[4] <= 127.134\ngini = 0.375\nsamples = 4\nvalue = [3, 1, 0, 0]"] ;
11 -> 13 ;
14 [label="gini = 0.0\nsamples = 1\nvalue = [0, 1, 0, 0]"] ;
13 -> 14 ;
15 [label="gini = 0.0\nsamples = 3\nvalue = [3, 0, 0, 0]"] ;
13 -> 15 ;
16 [label="X[3] <= 1.587\ngini = 0.399\nsamples = 69\nvalue = [50, 19, 0, 0]"] ;
2 -> 16 ;
17 [label="gini = 0.0\nsamples = 12\nvalue = [0, 12, 0, 0]"] ;
16 -> 17 ;
18 [label="X[2] <= 23635886080.0\ngini = 0.215\nsamples = 57\nvalue = [50, 7, 0, 0]"] ;
16 -> 18 ;
19 [label="X[0] <= 0.047\ngini = 0.455\nsamples = 20\nvalue = [13, 7, 0, 0]"] ;
18 -> 19 ;
20 [label="X[0] <= 0.01\ngini = 0.165\nsamples = 11\nvalue = [10, 1, 0, 0]"] ;
19 -> 20 ;
21 [label="gini = 0.0\nsamples = 1\nvalue = [0, 1, 0, 0]"] ;
20 -> 21 ;
22 [label="gini = 0.0\nsamples = 10\nvalue = [10, 0, 0, 0]"] ;
20 -> 22 ;
23 [label="X[0] <= 0.082\ngini = 0.444\nsamples = 9\nvalue = [3, 6, 0, 0]"] ;
19 -> 23 ;
24 [label="gini = 0.0\nsamples = 3\nvalue = [0, 3, 0, 0]"] ;
23 -> 24 ;
25 [label="X[0] <= 0.78\ngini = 0.5\nsamples = 6\nvalue = [3, 3, 0, 0]"] ;
23 -> 25 ;
26 [label="X[1] <= 97722.715\ngini = 0.375\nsamples = 4\nvalue = [3, 1, 0, 0]"] ;
25 -> 26 ;
27 [label="gini = 0.0\nsamples = 3\nvalue = [3, 0, 0, 0]"] ;
26 -> 27 ;
28 [label="gini = 0.0\nsamples = 1\nvalue = [0, 1, 0, 0]"] ;
26 -> 28 ;
29 [label="gini = 0.0\nsamples = 2\nvalue = [0, 2, 0, 0]"] ;
25 -> 29 ;
30 [label="gini = 0.0\nsamples = 37\nvalue = [37, 0, 0, 0]"] ;
18 -> 30 ;
31 [label="X[1] <= 399969.156\ngini = 0.648\nsamples = 499\nvalue = [105, 239, 139, 16]"] ;
1 -> 31 ;
32 [label="X[3] <= 2.922\ngini = 0.503\nsamples = 289\nvalue = [85, 184, 20, 0]"] ;
31 -> 32 ;
33 [label="X[4] <= -1.267\ngini = 0.381\nsamples = 204\nvalue = [27, 157, 20, 0]"] ;
32 -> 33 ;
34 [label="X[2] <= 38326415360.0\ngini = 0.483\nsamples = 22\nvalue = [0, 9, 13, 0]"] ;
33 -> 34 ;
35 [label="gini = 0.0\nsamples = 7\nvalue = [0, 7, 0, 0]"] ;
34 -> 35 ;
36 [label="X[1] <= 269304.672\ngini = 0.231\nsamples = 15\nvalue = [0, 2, 13, 0]"] ;
34 -> 36 ;
37 [label="X[3] <= 0.658\ngini = 0.444\nsamples = 3\nvalue = [0, 2, 1, 0]"] ;
36 -> 37 ;
38 [label="gini = 0.0\nsamples = 2\nvalue = [0, 2, 0, 0]"] ;
37 -> 38 ;
39 [label="gini = 0.0\nsamples = 1\nvalue = [0, 0, 1, 0]"] ;
37 -> 39 ;
40 [label="gini = 0.0\nsamples = 12\nvalue = [0, 0, 12, 0]"] ;
36 -> 40 ;
41 [label="X[2] <= 611404808192.0\ngini = 0.315\nsamples = 182\nvalue = [27, 148, 7, 0]"] ;
33 -> 41 ;
42 [label="X[2] <= 68731107328.0\ngini = 0.277\nsamples = 176\nvalue = [21, 148, 7, 0]"] ;
41 -> 42 ;
43 [label="X[1] <= 359678.391\ngini = 0.078\nsamples = 75\nvalue = [2, 72, 1, 0]"] ;
42 -> 43 ;
44 [label="X[0] <= 0.008\ngini = 0.053\nsamples = 74\nvalue = [2, 72, 0, 0]"] ;
43 -> 44 ;
45 [label="gini = 0.0\nsamples = 1\nvalue = [1, 0, 0, 0]"] ;
44 -> 45 ;
46 [label="X[1] <= 114248.941\ngini = 0.027\nsamples = 73\nvalue = [1, 72, 0, 0]"] ;
44 -> 46 ;
47 [label="X[2] <= 34255069184.0\ngini = 0.18\nsamples = 10\nvalue = [1, 9, 0, 0]"] ;
46 -> 47 ;
48 [label="gini = 0.0\nsamples = 9\nvalue = [0, 9, 0, 0]"] ;
47 -> 48 ;
49 [label="gini = 0.0\nsamples = 1\nvalue = [1, 0, 0, 0]"] ;
47 -> 49 ;
50 [label="gini = 0.0\nsamples = 63\nvalue = [0, 63, 0, 0]"] ;
46 -> 50 ;
51 [label="gini = 0.0\nsamples = 1\nvalue = [0, 0, 1, 0]"] ;
43 -> 51 ;
52 [label="X[1] <= 166912.242\ngini = 0.395\nsamples = 101\nvalue = [19, 76, 6, 0]"] ;
42 -> 52 ;
53 [label="gini = 0.0\nsamples = 7\nvalue = [7, 0, 0, 0]"] ;
52 -> 53 ;
54 [label="X[3] <= 0.772\ngini = 0.326\nsamples = 94\nvalue = [12, 76, 6, 0]"] ;
52 -> 54 ;
55 [label="X[2] <= 86938103808.0\ngini = 0.444\nsamples = 6\nvalue = [0, 2, 4, 0]"] ;
54 -> 55 ;
56 [label="gini = 0.0\nsamples = 2\nvalue = [0, 2, 0, 0]"] ;
55 -> 56 ;
57 [label="gini = 0.0\nsamples = 4\nvalue = [0, 0, 4, 0]"] ;
55 -> 57 ;
58 [label="X[4] <= 0.44\ngini = 0.274\nsamples = 88\nvalue = [12, 74, 2, 0]"] ;
54 -> 58 ;
59 [label="X[2] <= 139576991744.0\ngini = 0.537\nsamples = 18\nvalue = [5, 11, 2, 0]"] ;
58 -> 59 ;
60 [label="X[0] <= 0.172\ngini = 0.18\nsamples = 10\nvalue = [0, 9, 1, 0]"] ;
59 -> 60 ;
61 [label="X[1] <= 272856.977\ngini = 0.5\nsamples = 2\nvalue = [0, 1, 1, 0]"] ;
60 -> 61 ;
62 [label="gini = 0.0\nsamples = 1\nvalue = [0, 1, 0, 0]"] ;
61 -> 62 ;
63 [label="gini = 0.0\nsamples = 1\nvalue = [0, 0, 1, 0]"] ;
61 -> 63 ;
64 [label="gini = 0.0\nsamples = 8\nvalue = [0, 8, 0, 0]"] ;
60 -> 64 ;
65 [label="X[0] <= 0.521\ngini = 0.531\nsamples = 8\nvalue = [5, 2, 1, 0]"] ;
59 -> 65 ;
66 [label="X[0] <= 0.054\ngini = 0.408\nsamples = 7\nvalue = [5, 2, 0, 0]"] ;
65 -> 66 ;
67 [label="X[0] <= 0.031\ngini = 0.5\nsamples = 4\nvalue = [2, 2, 0, 0]"] ;
66 -> 67 ;
68 [label="gini = 0.0\nsamples = 2\nvalue = [2, 0, 0, 0]"] ;
67 -> 68 ;
69 [label="gini = 0.0\nsamples = 2\nvalue = [0, 2, 0, 0]"] ;
67 -> 69 ;
70 [label="gini = 0.0\nsamples = 3\nvalue = [3, 0, 0, 0]"] ;
66 -> 70 ;
71 [label="gini = 0.0\nsamples = 1\nvalue = [0, 0, 1, 0]"] ;
65 -> 71 ;
72 [label="X[1] <= 212258.438\ngini = 0.18\nsamples = 70\nvalue = [7, 63, 0, 0]"] ;
58 -> 72 ;
73 [label="X[2] <= 117266710528.0\ngini = 0.5\nsamples = 6\nvalue = [3, 3, 0, 0]"] ;
72 -> 73 ;
74 [label="gini = 0.0\nsamples = 2\nvalue = [0, 2, 0, 0]"] ;
73 -> 74 ;
75 [label="X[4] <= 5.68\ngini = 0.375\nsamples = 4\nvalue = [3, 1, 0, 0]"] ;
73 -> 75 ;
76 [label="gini = 0.0\nsamples = 3\nvalue = [3, 0, 0, 0]"] ;
75 -> 76 ;
77 [label="gini = 0.0\nsamples = 1\nvalue = [0, 1, 0, 0]"] ;
75 -> 77 ;
78 [label="X[0] <= 0.551\ngini = 0.117\nsamples = 64\nvalue = [4, 60, 0, 0]"] ;
72 -> 78 ;
79 [label="X[2] <= 580288217088.0\ngini = 0.035\nsamples = 56\nvalue = [1, 55, 0, 0]"] ;
78 -> 79 ;
80 [label="gini = 0.0\nsamples = 54\nvalue = [0, 54, 0, 0]"] ;
79 -> 80 ;
81 [label="X[0] <= 0.267\ngini = 0.5\nsamples = 2\nvalue = [1, 1, 0, 0]"] ;
79 -> 81 ;
82 [label="gini = 0.0\nsamples = 1\nvalue = [1, 0, 0, 0]"] ;
81 -> 82 ;
83 [label="gini = 0.0\nsamples = 1\nvalue = [0, 1, 0, 0]"] ;
81 -> 83 ;
84 [label="X[2] <= 251613634560.0\ngini = 0.469\nsamples = 8\nvalue = [3, 5, 0, 0]"] ;
78 -> 84 ;
85 [label="gini = 0.0\nsamples = 5\nvalue = [0, 5, 0, 0]"] ;
84 -> 85 ;
86 [label="gini = 0.0\nsamples = 3\nvalue = [3, 0, 0, 0]"] ;
84 -> 86 ;
87 [label="gini = 0.0\nsamples = 6\nvalue = [6, 0, 0, 0]"] ;
41 -> 87 ;
88 [label="X[2] <= 36101899264.0\ngini = 0.433\nsamples = 85\nvalue = [58, 27, 0, 0]"] ;
32 -> 88 ;
89 [label="gini = 0.0\nsamples = 7\nvalue = [0, 7, 0, 0]"] ;
88 -> 89 ;
90 [label="X[1] <= 318351.359\ngini = 0.381\nsamples = 78\nvalue = [58, 20, 0, 0]"] ;
88 -> 90 ;
91 [label="X[3] <= 3.254\ngini = 0.238\nsamples = 58\nvalue = [50, 8, 0, 0]"] ;
90 -> 91 ;
92 [label="X[3] <= 3.143\ngini = 0.486\nsamples = 12\nvalue = [7, 5, 0, 0]"] ;
91 -> 92 ;
93 [label="gini = 0.0\nsamples = 6\nvalue = [6, 0, 0, 0]"] ;
92 -> 93 ;
94 [label="X[0] <= 0.548\ngini = 0.278\nsamples = 6\nvalue = [1, 5, 0, 0]"] ;
92 -> 94 ;
95 [label="gini = 0.0\nsamples = 5\nvalue = [0, 5, 0, 0]"] ;
94 -> 95 ;
96 [label="gini = 0.0\nsamples = 1\nvalue = [1, 0, 0, 0]"] ;
94 -> 96 ;
97 [label="X[4] <= 74.918\ngini = 0.122\nsamples = 46\nvalue = [43, 3, 0, 0]"] ;
91 -> 97 ;
98 [label="X[1] <= 265001.656\ngini = 0.051\nsamples = 38\nvalue = [37, 1, 0, 0]"] ;
97 -> 98 ;
99 [label="gini = 0.0\nsamples = 31\nvalue = [31, 0, 0, 0]"] ;
98 -> 99 ;
100 [label="X[1] <= 272558.672\ngini = 0.245\nsamples = 7\nvalue = [6, 1, 0, 0]"] ;
98 -> 100 ;
101 [label="gini = 0.0\nsamples = 1\nvalue = [0, 1, 0, 0]"] ;
100 -> 101 ;
102 [label="gini = 0.0\nsamples = 6\nvalue = [6, 0, 0, 0]"] ;
100 -> 102 ;
103 [label="X[2] <= 148093558784.0\ngini = 0.375\nsamples = 8\nvalue = [6, 2, 0, 0]"] ;
97 -> 103 ;
104 [label="gini = 0.0\nsamples = 2\nvalue = [0, 2, 0, 0]"] ;
103 -> 104 ;
105 [label="gini = 0.0\nsamples = 6\nvalue = [6, 0, 0, 0]"] ;
103 -> 105 ;
106 [label="X[2] <= 723724009472.0\ngini = 0.48\nsamples = 20\nvalue = [8, 12, 0, 0]"] ;
90 -> 106 ;
107 [label="X[0] <= 0.06\ngini = 0.165\nsamples = 11\nvalue = [1, 10, 0, 0]"] ;
106 -> 107 ;
108 [label="X[3] <= 3.523\ngini = 0.5\nsamples = 2\nvalue = [1, 1, 0, 0]"] ;
107 -> 108 ;
109 [label="gini = 0.0\nsamples = 1\nvalue = [0, 1, 0, 0]"] ;
108 -> 109 ;
110 [label="gini = 0.0\nsamples = 1\nvalue = [1, 0, 0, 0]"] ;
108 -> 110 ;
111 [label="gini = 0.0\nsamples = 9\nvalue = [0, 9, 0, 0]"] ;
107 -> 111 ;
112 [label="X[0] <= 0.729\ngini = 0.346\nsamples = 9\nvalue = [7, 2, 0, 0]"] ;
106 -> 112 ;
113 [label="gini = 0.0\nsamples = 6\nvalue = [6, 0, 0, 0]"] ;
112 -> 113 ;
114 [label="X[2] <= 1697981333504.0\ngini = 0.444\nsamples = 3\nvalue = [1, 2, 0, 0]"] ;
112 -> 114 ;
115 [label="gini = 0.0\nsamples = 2\nvalue = [0, 2, 0, 0]"] ;
114 -> 115 ;
116 [label="gini = 0.0\nsamples = 1\nvalue = [1, 0, 0, 0]"] ;
114 -> 116 ;
117 [label="X[3] <= 1.449\ngini = 0.595\nsamples = 210\nvalue = [20, 55, 119, 16]"] ;
31 -> 117 ;
118 [label="X[4] <= -1.589\ngini = 0.366\nsamples = 124\nvalue = [2, 9, 97, 16]"] ;
117 -> 118 ;
119 [label="X[2] <= 234243817472.0\ngini = 0.397\nsamples = 11\nvalue = [0, 0, 3, 8]"] ;
118 -> 119 ;
120 [label="gini = 0.0\nsamples = 3\nvalue = [0, 0, 3, 0]"] ;
119 -> 120 ;
121 [label="gini = 0.0\nsamples = 8\nvalue = [0, 0, 0, 8]"] ;
119 -> 121 ;
122 [label="X[4] <= -0.737\ngini = 0.296\nsamples = 113\nvalue = [2, 9, 94, 8]"] ;
118 -> 122 ;
123 [label="X[1] <= 577545.656\ngini = 0.463\nsamples = 32\nvalue = [1, 1, 22, 8]"] ;
122 -> 123 ;
124 [label="X[3] <= 0.94\ngini = 0.163\nsamples = 23\nvalue = [0, 1, 21, 1]"] ;
123 -> 124 ;
125 [label="X[3] <= 0.684\ngini = 0.087\nsamples = 22\nvalue = [0, 0, 21, 1]"] ;
124 -> 125 ;
126 [label="gini = 0.0\nsamples = 20\nvalue = [0, 0, 20, 0]"] ;
125 -> 126 ;
127 [label="X[1] <= 465847.297\ngini = 0.5\nsamples = 2\nvalue = [0, 0, 1, 1]"] ;
125 -> 127 ;
128 [label="gini = 0.0\nsamples = 1\nvalue = [0, 0, 0, 1]"] ;
127 -> 128 ;
129 [label="gini = 0.0\nsamples = 1\nvalue = [0, 0, 1, 0]"] ;
127 -> 129 ;
130 [label="gini = 0.0\nsamples = 1\nvalue = [0, 1, 0, 0]"] ;
124 -> 130 ;
131 [label="X[3] <= -0.359\ngini = 0.37\nsamples = 9\nvalue = [1, 0, 1, 7]"] ;
123 -> 131 ;
132 [label="gini = 0.0\nsamples = 1\nvalue = [0, 0, 1, 0]"] ;
131 -> 132 ;
133 [label="X[2] <= 801729773568.0\ngini = 0.219\nsamples = 8\nvalue = [1, 0, 0, 7]"] ;
131 -> 133 ;
134 [label="gini = 0.0\nsamples = 7\nvalue = [0, 0, 0, 7]"] ;
133 -> 134 ;
135 [label="gini = 0.0\nsamples = 1\nvalue = [1, 0, 0, 0]"] ;
133 -> 135 ;
136 [label="X[3] <= 1.097\ngini = 0.2\nsamples = 81\nvalue = [1, 8, 72, 0]"] ;
122 -> 136 ;
137 [label="gini = 0.0\nsamples = 35\nvalue = [0, 0, 35, 0]"] ;
136 -> 137 ;
138 [label="X[4] <= 0.305\ngini = 0.322\nsamples = 46\nvalue = [1, 8, 37, 0]"] ;
136 -> 138 ;
139 [label="X[1] <= 514104.875\ngini = 0.547\nsamples = 17\nvalue = [1, 7, 9, 0]"] ;
138 -> 139 ;
140 [label="X[0] <= 0.28\ngini = 0.278\nsamples = 6\nvalue = [1, 5, 0, 0]"] ;
139 -> 140 ;
141 [label="gini = 0.0\nsamples = 5\nvalue = [0, 5, 0, 0]"] ;
140 -> 141 ;
142 [label="gini = 0.0\nsamples = 1\nvalue = [1, 0, 0, 0]"] ;
140 -> 142 ;
143 [label="X[3] <= 1.287\ngini = 0.298\nsamples = 11\nvalue = [0, 2, 9, 0]"] ;
139 -> 143 ;
144 [label="X[2] <= 976663019520.0\ngini = 0.18\nsamples = 10\nvalue = [0, 1, 9, 0]"] ;
143 -> 144 ;
145 [label="gini = 0.0\nsamples = 8\nvalue = [0, 0, 8, 0]"] ;
144 -> 145 ;
146 [label="X[4] <= -0.256\ngini = 0.5\nsamples = 2\nvalue = [0, 1, 1, 0]"] ;
144 -> 146 ;
147 [label="gini = 0.0\nsamples = 1\nvalue = [0, 0, 1, 0]"] ;
146 -> 147 ;
148 [label="gini = 0.0\nsamples = 1\nvalue = [0, 1, 0, 0]"] ;
146 -> 148 ;
149 [label="gini = 0.0\nsamples = 1\nvalue = [0, 1, 0, 0]"] ;
143 -> 149 ;
150 [label="X[2] <= 193195868160.0\ngini = 0.067\nsamples = 29\nvalue = [0, 1, 28, 0]"] ;
138 -> 150 ;
151 [label="gini = 0.0\nsamples = 1\nvalue = [0, 1, 0, 0]"] ;
150 -> 151 ;
152 [label="gini = 0.0\nsamples = 28\nvalue = [0, 0, 28, 0]"] ;
150 -> 152 ;
153 [label="X[2] <= 1469605478400.0\ngini = 0.605\nsamples = 86\nvalue = [18, 46, 22, 0]"] ;
117 -> 153 ;
154 [label="X[4] <= 7.823\ngini = 0.488\nsamples = 67\nvalue = [3, 43, 21, 0]"] ;
153 -> 154 ;
155 [label="X[4] <= 4.084\ngini = 0.42\nsamples = 55\nvalue = [3, 40, 12, 0]"] ;
154 -> 155 ;
156 [label="X[4] <= 3.764\ngini = 0.441\nsamples = 42\nvalue = [1, 29, 12, 0]"] ;
155 -> 156 ;
157 [label="X[4] <= 1.307\ngini = 0.393\nsamples = 39\nvalue = [1, 29, 9, 0]"] ;
156 -> 157 ;
158 [label="gini = 0.0\nsamples = 8\nvalue = [0, 8, 0, 0]"] ;
157 -> 158 ;
159 [label="X[3] <= 1.742\ngini = 0.456\nsamples = 31\nvalue = [1, 21, 9, 0]"] ;
157 -> 159 ;
160 [label="X[1] <= 417493.516\ngini = 0.498\nsamples = 17\nvalue = [0, 9, 8, 0]"] ;
159 -> 160 ;
161 [label="gini = 0.0\nsamples = 3\nvalue = [0, 3, 0, 0]"] ;
160 -> 161 ;
162 [label="X[2] <= 486355714048.0\ngini = 0.49\nsamples = 14\nvalue = [0, 6, 8, 0]"] ;
160 -> 162 ;
163 [label="X[1] <= 472864.656\ngini = 0.444\nsamples = 12\nvalue = [0, 4, 8, 0]"] ;
162 -> 163 ;
164 [label="gini = 0.0\nsamples = 4\nvalue = [0, 0, 4, 0]"] ;
163 -> 164 ;
165 [label="X[3] <= 1.59\ngini = 0.5\nsamples = 8\nvalue = [0, 4, 4, 0]"] ;
163 -> 165 ;
166 [label="gini = 0.0\nsamples = 3\nvalue = [0, 3, 0, 0]"] ;
165 -> 166 ;
167 [label="X[0] <= 0.009\ngini = 0.32\nsamples = 5\nvalue = [0, 1, 4, 0]"] ;
165 -> 167 ;
168 [label="gini = 0.0\nsamples = 1\nvalue = [0, 1, 0, 0]"] ;
167 -> 168 ;
169 [label="gini = 0.0\nsamples = 4\nvalue = [0, 0, 4, 0]"] ;
167 -> 169 ;
170 [label="gini = 0.0\nsamples = 2\nvalue = [0, 2, 0, 0]"] ;
162 -> 170 ;
171 [label="X[1] <= 647063.594\ngini = 0.255\nsamples = 14\nvalue = [1, 12, 1, 0]"] ;
159 -> 171 ;
172 [label="X[4] <= 1.835\ngini = 0.142\nsamples = 13\nvalue = [1, 12, 0, 0]"] ;
171 -> 172 ;
173 [label="X[4] <= 1.641\ngini = 0.5\nsamples = 2\nvalue = [1, 1, 0, 0]"] ;
172 -> 173 ;
174 [label="gini = 0.0\nsamples = 1\nvalue = [0, 1, 0, 0]"] ;
173 -> 174 ;
175 [label="gini = 0.0\nsamples = 1\nvalue = [1, 0, 0, 0]"] ;
173 -> 175 ;
176 [label="gini = 0.0\nsamples = 11\nvalue = [0, 11, 0, 0]"] ;
172 -> 176 ;
177 [label="gini = 0.0\nsamples = 1\nvalue = [0, 0, 1, 0]"] ;
171 -> 177 ;
178 [label="gini = 0.0\nsamples = 3\nvalue = [0, 0, 3, 0]"] ;
156 -> 178 ;
179 [label="X[2] <= 872924643328.0\ngini = 0.26\nsamples = 13\nvalue = [2, 11, 0, 0]"] ;
155 -> 179 ;
180 [label="gini = 0.0\nsamples = 10\nvalue = [0, 10, 0, 0]"] ;
179 -> 180 ;
181 [label="X[0] <= 0.131\ngini = 0.444\nsamples = 3\nvalue = [2, 1, 0, 0]"] ;
179 -> 181 ;
182 [label="gini = 0.0\nsamples = 2\nvalue = [2, 0, 0, 0]"] ;
181 -> 182 ;
183 [label="gini = 0.0\nsamples = 1\nvalue = [0, 1, 0, 0]"] ;
181 -> 183 ;
184 [label="X[1] <= 510418.969\ngini = 0.375\nsamples = 12\nvalue = [0, 3, 9, 0]"] ;
154 -> 184 ;
185 [label="X[2] <= 307541794816.0\ngini = 0.375\nsamples = 4\nvalue = [0, 3, 1, 0]"] ;
184 -> 185 ;
186 [label="gini = 0.0\nsamples = 1\nvalue = [0, 0, 1, 0]"] ;
185 -> 186 ;
187 [label="gini = 0.0\nsamples = 3\nvalue = [0, 3, 0, 0]"] ;
185 -> 187 ;
188 [label="gini = 0.0\nsamples = 8\nvalue = [0, 0, 8, 0]"] ;
184 -> 188 ;
189 [label="X[0] <= 0.105\ngini = 0.349\nsamples = 19\nvalue = [15, 3, 1, 0]"] ;
153 -> 189 ;
190 [label="X[1] <= 667164.312\ngini = 0.5\nsamples = 2\nvalue = [0, 1, 1, 0]"] ;
189 -> 190 ;
191 [label="gini = 0.0\nsamples = 1\nvalue = [0, 1, 0, 0]"] ;
190 -> 191 ;
192 [label="gini = 0.0\nsamples = 1\nvalue = [0, 0, 1, 0]"] ;
190 -> 192 ;
193 [label="X[0] <= 0.847\ngini = 0.208\nsamples = 17\nvalue = [15, 2, 0, 0]"] ;
189 -> 193 ;
194 [label="gini = 0.0\nsamples = 12\nvalue = [12, 0, 0, 0]"] ;
193 -> 194 ;
195 [label="X[0] <= 0.919\ngini = 0.48\nsamples = 5\nvalue = [3, 2, 0, 0]"] ;
193 -> 195 ;
196 [label="gini = 0.0\nsamples = 2\nvalue = [0, 2, 0, 0]"] ;
195 -> 196 ;
197 [label="gini = 0.0\nsamples = 3\nvalue = [3, 0, 0, 0]"] ;
195 -> 197 ;
198 [label="X[3] <= 0.815\ngini = 0.212\nsamples = 722\nvalue = [24, 18, 41, 639]"] ;
0 -> 198 [labeldistance=2.5, labelangle=-45, headlabel="False"] ;
199 [label="X[1] <= 976102.062\ngini = 0.025\nsamples = 547\nvalue = [0, 0, 7, 540]"] ;
198 -> 199 ;
200 [label="X[2] <= 197989695488.0\ngini = 0.268\nsamples = 44\nvalue = [0, 0, 7, 37]"] ;
199 -> 200 ;
201 [label="X[2] <= 174546616320.0\ngini = 0.444\nsamples = 6\nvalue = [0, 0, 4, 2]"] ;
200 -> 201 ;
202 [label="X[0] <= 0.493\ngini = 0.444\nsamples = 3\nvalue = [0, 0, 1, 2]"] ;
201 -> 202 ;
203 [label="gini = 0.0\nsamples = 2\nvalue = [0, 0, 0, 2]"] ;
202 -> 203 ;
204 [label="gini = 0.0\nsamples = 1\nvalue = [0, 0, 1, 0]"] ;
202 -> 204 ;
205 [label="gini = 0.0\nsamples = 3\nvalue = [0, 0, 3, 0]"] ;
201 -> 205 ;
206 [label="X[0] <= 0.018\ngini = 0.145\nsamples = 38\nvalue = [0, 0, 3, 35]"] ;
200 -> 206 ;
207 [label="X[0] <= 0.015\ngini = 0.444\nsamples = 6\nvalue = [0, 0, 2, 4]"] ;
206 -> 207 ;
208 [label="gini = 0.0\nsamples = 4\nvalue = [0, 0, 0, 4]"] ;
207 -> 208 ;
209 [label="gini = 0.0\nsamples = 2\nvalue = [0, 0, 2, 0]"] ;
207 -> 209 ;
210 [label="X[1] <= 734672.0\ngini = 0.061\nsamples = 32\nvalue = [0, 0, 1, 31]"] ;
206 -> 210 ;
211 [label="X[1] <= 730016.406\ngini = 0.32\nsamples = 5\nvalue = [0, 0, 1, 4]"] ;
210 -> 211 ;
212 [label="gini = 0.0\nsamples = 4\nvalue = [0, 0, 0, 4]"] ;
211 -> 212 ;
213 [label="gini = 0.0\nsamples = 1\nvalue = [0, 0, 1, 0]"] ;
211 -> 213 ;
214 [label="gini = 0.0\nsamples = 27\nvalue = [0, 0, 0, 27]"] ;
210 -> 214 ;
215 [label="gini = 0.0\nsamples = 503\nvalue = [0, 0, 0, 503]"] ;
199 -> 215 ;
216 [label="X[1] <= 1231063.75\ngini = 0.613\nsamples = 175\nvalue = [24, 18, 34, 99]"] ;
198 -> 216 ;
217 [label="X[2] <= 5547296555008.0\ngini = 0.677\nsamples = 66\nvalue = [8, 9, 30, 19]"] ;
216 -> 217 ;
218 [label="X[1] <= 745139.719\ngini = 0.637\nsamples = 61\nvalue = [3, 9, 30, 19]"] ;
217 -> 218 ;
219 [label="gini = 0.0\nsamples = 10\nvalue = [0, 0, 10, 0]"] ;
218 -> 219 ;
220 [label="X[2] <= 1900777963520.0\ngini = 0.673\nsamples = 51\nvalue = [3, 9, 20, 19]"] ;
218 -> 220 ;
221 [label="X[2] <= 714878386176.0\ngini = 0.512\nsamples = 22\nvalue = [0, 2, 6, 14]"] ;
220 -> 221 ;
222 [label="X[3] <= 1.016\ngini = 0.408\nsamples = 7\nvalue = [0, 0, 5, 2]"] ;
221 -> 222 ;
223 [label="gini = 0.0\nsamples = 4\nvalue = [0, 0, 4, 0]"] ;
222 -> 223 ;
224 [label="X[2] <= 624336371712.0\ngini = 0.444\nsamples = 3\nvalue = [0, 0, 1, 2]"] ;
222 -> 224 ;
225 [label="gini = 0.0\nsamples = 2\nvalue = [0, 0, 0, 2]"] ;
224 -> 225 ;
226 [label="gini = 0.0\nsamples = 1\nvalue = [0, 0, 1, 0]"] ;
224 -> 226 ;
227 [label="X[4] <= -0.616\ngini = 0.338\nsamples = 15\nvalue = [0, 2, 1, 12]"] ;
221 -> 227 ;
228 [label="gini = 0.0\nsamples = 2\nvalue = [0, 2, 0, 0]"] ;
227 -> 228 ;
229 [label="X[3] <= 1.564\ngini = 0.142\nsamples = 13\nvalue = [0, 0, 1, 12]"] ;
227 -> 229 ;
230 [label="gini = 0.0\nsamples = 11\nvalue = [0, 0, 0, 11]"] ;
229 -> 230 ;
231 [label="X[3] <= 1.945\ngini = 0.5\nsamples = 2\nvalue = [0, 0, 1, 1]"] ;
229 -> 231 ;
232 [label="gini = 0.0\nsamples = 1\nvalue = [0, 0, 1, 0]"] ;
231 -> 232 ;
233 [label="gini = 0.0\nsamples = 1\nvalue = [0, 0, 0, 1]"] ;
231 -> 233 ;
234 [label="X[2] <= 3896462540800.0\ngini = 0.668\nsamples = 29\nvalue = [3, 7, 14, 5]"] ;
220 -> 234 ;
235 [label="X[0] <= 0.182\ngini = 0.624\nsamples = 22\nvalue = [3, 2, 12, 5]"] ;
234 -> 235 ;
236 [label="X[1] <= 1119361.688\ngini = 0.524\nsamples = 15\nvalue = [0, 1, 9, 5]"] ;
235 -> 236 ;
237 [label="X[4] <= -0.384\ngini = 0.406\nsamples = 8\nvalue = [0, 1, 6, 1]"] ;
236 -> 237 ;
238 [label="gini = 0.0\nsamples = 1\nvalue = [0, 1, 0, 0]"] ;
237 -> 238 ;
239 [label="X[1] <= 944171.75\ngini = 0.245\nsamples = 7\nvalue = [0, 0, 6, 1]"] ;
237 -> 239 ;
240 [label="X[4] <= 4.97\ngini = 0.5\nsamples = 2\nvalue = [0, 0, 1, 1]"] ;
239 -> 240 ;
241 [label="gini = 0.0\nsamples = 1\nvalue = [0, 0, 0, 1]"] ;
240 -> 241 ;
242 [label="gini = 0.0\nsamples = 1\nvalue = [0, 0, 1, 0]"] ;
240 -> 242 ;
243 [label="gini = 0.0\nsamples = 5\nvalue = [0, 0, 5, 0]"] ;
239 -> 243 ;
244 [label="X[1] <= 1150516.0\ngini = 0.49\nsamples = 7\nvalue = [0, 0, 3, 4]"] ;
236 -> 244 ;
245 [label="gini = 0.0\nsamples = 3\nvalue = [0, 0, 0, 3]"] ;
244 -> 245 ;
246 [label="X[0] <= 0.15\ngini = 0.375\nsamples = 4\nvalue = [0, 0, 3, 1]"] ;
244 -> 246 ;
247 [label="gini = 0.0\nsamples = 3\nvalue = [0, 0, 3, 0]"] ;
246 -> 247 ;
248 [label="gini = 0.0\nsamples = 1\nvalue = [0, 0, 0, 1]"] ;
246 -> 248 ;
249 [label="X[2] <= 2656527450112.0\ngini = 0.612\nsamples = 7\nvalue = [3, 1, 3, 0]"] ;
235 -> 249 ;
250 [label="X[0] <= 0.216\ngini = 0.444\nsamples = 3\nvalue = [0, 1, 2, 0]"] ;
249 -> 250 ;
251 [label="gini = 0.0\nsamples = 1\nvalue = [0, 1, 0, 0]"] ;
250 -> 251 ;
252 [label="gini = 0.0\nsamples = 2\nvalue = [0, 0, 2, 0]"] ;
250 -> 252 ;
253 [label="X[1] <= 1145404.5\ngini = 0.375\nsamples = 4\nvalue = [3, 0, 1, 0]"] ;
249 -> 253 ;
254 [label="gini = 0.0\nsamples = 3\nvalue = [3, 0, 0, 0]"] ;
253 -> 254 ;
255 [label="gini = 0.0\nsamples = 1\nvalue = [0, 0, 1, 0]"] ;
253 -> 255 ;
256 [label="X[1] <= 1039426.781\ngini = 0.408\nsamples = 7\nvalue = [0, 5, 2, 0]"] ;
234 -> 256 ;
257 [label="gini = 0.0\nsamples = 5\nvalue = [0, 5, 0, 0]"] ;
256 -> 257 ;
258 [label="gini = 0.0\nsamples = 2\nvalue = [0, 0, 2, 0]"] ;
256 -> 258 ;
259 [label="gini = 0.0\nsamples = 5\nvalue = [5, 0, 0, 0]"] ;
217 -> 259 ;
260 [label="X[0] <= 0.511\ngini = 0.432\nsamples = 109\nvalue = [16, 9, 4, 80]"] ;
216 -> 260 ;
261 [label="X[1] <= 1430558.0\ngini = 0.082\nsamples = 71\nvalue = [1, 1, 1, 68]"] ;
260 -> 261 ;
262 [label="X[2] <= 7141363286016.0\ngini = 0.314\nsamples = 11\nvalue = [1, 0, 1, 9]"] ;
261 -> 262 ;
263 [label="gini = 0.0\nsamples = 9\nvalue = [0, 0, 0, 9]"] ;
262 -> 263 ;
264 [label="X[1] <= 1365872.562\ngini = 0.5\nsamples = 2\nvalue = [1, 0, 1, 0]"] ;
262 -> 264 ;
265 [label="gini = 0.0\nsamples = 1\nvalue = [1, 0, 0, 0]"] ;
264 -> 265 ;
266 [label="gini = 0.0\nsamples = 1\nvalue = [0, 0, 1, 0]"] ;
264 -> 266 ;
267 [label="X[1] <= 1599941.125\ngini = 0.033\nsamples = 60\nvalue = [0, 1, 0, 59]"] ;
261 -> 267 ;
268 [label="X[1] <= 1575844.062\ngini = 0.18\nsamples = 10\nvalue = [0, 1, 0, 9]"] ;
267 -> 268 ;
269 [label="gini = 0.0\nsamples = 9\nvalue = [0, 0, 0, 9]"] ;
268 -> 269 ;
270 [label="gini = 0.0\nsamples = 1\nvalue = [0, 1, 0, 0]"] ;
268 -> 270 ;
271 [label="gini = 0.0\nsamples = 50\nvalue = [0, 0, 0, 50]"] ;
267 -> 271 ;
272 [label="X[3] <= 2.719\ngini = 0.694\nsamples = 38\nvalue = [15, 8, 3, 12]"] ;
260 -> 272 ;
273 [label="X[0] <= 0.913\ngini = 0.612\nsamples = 22\nvalue = [2, 6, 2, 12]"] ;
272 -> 273 ;
274 [label="X[3] <= 1.273\ngini = 0.678\nsamples = 17\nvalue = [2, 6, 2, 7]"] ;
273 -> 274 ;
275 [label="X[0] <= 0.548\ngini = 0.245\nsamples = 7\nvalue = [0, 1, 0, 6]"] ;
274 -> 275 ;
276 [label="gini = 0.0\nsamples = 1\nvalue = [0, 1, 0, 0]"] ;
275 -> 276 ;
277 [label="gini = 0.0\nsamples = 6\nvalue = [0, 0, 0, 6]"] ;
275 -> 277 ;
278 [label="X[0] <= 0.733\ngini = 0.66\nsamples = 10\nvalue = [2, 5, 2, 1]"] ;
274 -> 278 ;
279 [label="X[4] <= 0.548\ngini = 0.64\nsamples = 5\nvalue = [2, 0, 2, 1]"] ;
278 -> 279 ;
280 [label="gini = 0.0\nsamples = 2\nvalue = [2, 0, 0, 0]"] ;
279 -> 280 ;
281 [label="X[3] <= 2.394\ngini = 0.444\nsamples = 3\nvalue = [0, 0, 2, 1]"] ;
279 -> 281 ;
282 [label="gini = 0.0\nsamples = 2\nvalue = [0, 0, 2, 0]"] ;
281 -> 282 ;
283 [label="gini = 0.0\nsamples = 1\nvalue = [0, 0, 0, 1]"] ;
281 -> 283 ;
284 [label="gini = 0.0\nsamples = 5\nvalue = [0, 5, 0, 0]"] ;
278 -> 284 ;
285 [label="gini = 0.0\nsamples = 5\nvalue = [0, 0, 0, 5]"] ;
273 -> 285 ;
286 [label="X[0] <= 0.604\ngini = 0.32\nsamples = 16\nvalue = [13, 2, 1, 0]"] ;
272 -> 286 ;
287 [label="gini = 0.0\nsamples = 1\nvalue = [0, 0, 1, 0]"] ;
286 -> 287 ;
288 [label="X[1] <= 3575758.375\ngini = 0.231\nsamples = 15\nvalue = [13, 2, 0, 0]"] ;
286 -> 288 ;
289 [label="gini = 0.0\nsamples = 9\nvalue = [9, 0, 0, 0]"] ;
288 -> 289 ;
290 [label="X[3] <= 3.755\ngini = 0.444\nsamples = 6\nvalue = [4, 2, 0, 0]"] ;
288 -> 290 ;
291 [label="gini = 0.0\nsamples = 3\nvalue = [3, 0, 0, 0]"] ;
290 -> 291 ;
292 [label="X[1] <= 3886867.875\ngini = 0.444\nsamples = 3\nvalue = [1, 2, 0, 0]"] ;
290 -> 292 ;
293 [label="gini = 0.0\nsamples = 1\nvalue = [0, 1, 0, 0]"] ;
292 -> 293 ;
294 [label="X[3] <= 4.214\ngini = 0.5\nsamples = 2\nvalue = [1, 1, 0, 0]"] ;
292 -> 294 ;
295 [label="gini = 0.0\nsamples = 1\nvalue = [0, 1, 0, 0]"] ;
294 -> 295 ;
296 [label="gini = 0.0\nsamples = 1\nvalue = [1, 0, 0, 0]"] ;
294 -> 296 ;
}